{"ip":0,"fr":60,"v":"5.1.20","assets":[],"layers":[{"ty":4,"nm":"icon","ip":0,"st":0,"ind":2,"hix":3,"ks":{"o":{"a":0,"k":100},"or":{"a":0,"k":[0,0,0]},"a":{"a":0,"k":[30,30,0]},"p":{"s":true,"x":{"a":1,"k":[{"t":0,"s":[250],"e":[250],"i":{"x":[0.515],"y":[0.955]},"o":{"x":[0.455],"y":[0.03]}},{"t":66}]},"y":{"a":1,"k":[{"t":0,"s":[200],"e":[114],"i":{"x":[0.515],"y":[0.955]},"o":{"x":[0.455],"y":[0.03]}},{"t":66}]}},"rx":{"a":0,"k":0},"ry":{"a":0,"k":0},"rz":{"a":0,"k":0},"s":{"a":0,"k":[100,100,100]}},"shapes":[{"ty":"gr","nm":"icon shape group","it":[{"ty":"sh","ks":{"a":0,"k":{"c":true,"v":[[24.8908594,46.708125],[25.4730469,45.2041406],[25.1334375,42.9724219],[23.1928125,31.959375],[23.7264844,25.2157031],[25.7641406,23.420625],[30.3246094,21.9166406],[31.7315625,21.4314844],[34.6425,19.9275],[39.3485156,19.3938281],[40.2703125,18.7146094],[35.4672656,17.4532031],[24.6967969,19.6849219],[24.55125,19.6364063],[24.5027344,19.4908594],[24.9878906,14.9789063],[24.6482812,14.0085938],[24.2116406,13.9115625],[24.0175781,13.8630469],[21.3492187,19.0542188],[20.0878125,21.8196094],[15.5273438,25.8949219],[16.400625,26.7682031],[20.1363281,25.6038281],[20.0878125,26.4285938],[19.4085937,36.9079688],[19.6511719,41.0317969],[20.1848437,43.99125],[21.9314062,45.0585938],[24.4057031,46.4170313]],"i":[[-0.14554689999999937,0],[0,0.8247657000000004],[0.24257809999999935,0.6792186999999998],[0,3.978281299999999],[-0.3396094000000005,2.3287499999999994],[-1.6980469000000014,0.5821874999999999],[-0.9703124999999986,0],[-0.5821874999999999,0.2910937000000011],[-1.4069530999999955,0.6792186999999998],[-2.1832031,0],[0,0.5336718000000005],[2.5713281000000023,0],[4.5119530999999995,-1.1643749999999997],[0.04851560000000177,0.048515599999998216],[0,0.09703119999999998],[0,1.4069531000000008],[0.24257820000000052,0],[0.14554689999999937,0.04851559999999999],[0.048515599999998216,0],[0.29109379999999874,-1.5039844000000002],[0.8247656000000028,-0.4366406000000005],[0,-0.8732812999999986],[-0.5336719000000016,0],[-0.5336719000000016,0],[0.04851560000000177,-0.4851562999999999],[0,-3.735703199999996],[-0.14554690000000292,-1.0188282000000015],[-0.09703119999999998,-0.19406250000000114],[-0.3396093000000029,-0.5821874999999963],[-0.8247655999999992,-0.8247657000000004]],"o":[[0.4366406000000005,0],[0,-0.7277343000000016],[-1.309921899999999,-3.3475781],[0,-2.134687500000002],[0.1455467999999982,-1.0188281000000003],[0.9703124999999986,-0.3396094000000005],[0.14554680000000175,0],[1.4554687000000008,-0.6792187999999975],[1.6010156000000038,-0.7762499999999974],[0.5336719000000016,0],[0,-0.9703125000000021],[-5.821874999999999,0],[-0.0970312999999976,0],[0,0],[0,-0.679218800000001],[0,-0.582187600000001],[-0.09703119999999998,0],[-0.048515599999998216,0],[-1.2614062000000033,0],[-0.4366406000000005,2.3772655999999976],[-2.522812499999997,1.3584374999999973],[0,0.6792186999999998],[1.1643749999999997,0],[0.048515599999998216,0],[-0.33960939999999695,2.086171799999999],[0,1.6010156000000038],[0.19406249999999758,1.4554686999999973],[0.24257820000000052,0.4851562999999999],[0.7277343999999992,1.4554687000000044],[0.19406250000000114,0.19406250000000114]]}}},{"ty":"sh","ks":{"a":0,"k":{"c":true,"v":[[40.6584375,30.7464844],[42.4535156,30.5039062],[42.9871875,29.630625],[38.6207812,26.525625],[35.5642969,26.0404688],[31.5860156,28.1266406],[31.0523437,28.9028906],[32.9929687,29.8246875]],"i":[[-2.5713280999999952,0],[-0.19406250000000114,0.1940626000000023],[0,0.2910938000000023],[0.8247656999999933,0.19406249999999758],[0.7762499999999974,0],[1.7950781000000013,-1.4554687000000008],[0,-0.19406249999999758],[-0.33960929999999934,-0.24257809999999935]],"o":[[0.873281200000001,0],[0.38812499999999517,-0.2910937000000011],[0,-1.5039843999999967],[-1.3584375000000009,-0.2425781000000029],[-1.552500000000002,0],[-0.3881249999999987,0.33960939999999695],[0,0.5821874999999999],[0.679218800000001,0.4366406000000005]]}}},{"ty":"sh","ks":{"a":0,"k":{"c":true,"v":[[36.8742187,44.1367969],[43.2782812,42.2932031],[42.0653906,41.274375],[36.7286719,40.2555469],[33.478125,38.6545312],[32.7503906,38.2664063],[31.2949219,39.9644531],[31.5375,40.6436719],[34.3514062,43.7486719]],"i":[[-1.0673437000000021,0],[0,1.0673438000000033],[0.8247655999999992,0.04851560000000177],[1.2128906000000015,0.4851561999999987],[0.7277344000000028,0.679218800000001],[0.2425780999999958,0],[0,-0.873281200000001],[-0.14554690000000292,-0.2425781000000029],[-0.6307030999999981,-0.3396094000000005]],"o":[[2.7168750000000017,0],[0,-0.6307030999999981],[-2.6683594,-0.19406250000000114],[-1.0673438000000033,-0.4366406999999981],[-0.19406250000000114,-0.29109369999999757],[-0.6792186999999998,0],[0,0.2425781000000029],[0.5336719000000016,0.9217968999999968],[0.5336719000000016,0.2425781000000029]]}}},{"ty":"st","o":{"a":0,"k":0},"w":{"a":0,"k":0},"c":{"a":0,"k":[0,0,0,0]},"lc":3,"lj":1,"ml":1},{"ty":"fl","o":{"a":0,"k":100},"r":1,"c":{"a":0,"k":[1,1,1,1]}},{"ty":"tr","o":{"a":0,"k":100},"a":{"a":0,"k":[0,0]},"s":{"a":0,"k":[100,100]},"p":{"a":0,"k":[0,0]},"r":{"a":0,"k":0}}]},{"ty":"gr","nm":"icon shape group","it":[{"ty":"el","p":{"a":0,"k":[29,29]},"s":{"a":0,"k":[59.9414062,59.9414062]}},{"ty":"st","o":{"a":0,"k":0},"w":{"a":0,"k":0},"c":{"a":0,"k":[0,0,0,0]},"lc":3,"lj":1,"ml":1},{"ty":"fl","o":{"a":0,"k":100},"r":2,"c":{"a":0,"k":[0.7803921568627451,0,0.1450980392156863,1]}},{"ty":"tr","o":{"a":0,"k":100},"a":{"a":0,"k":[0,0]},"s":{"a":0,"k":[100,100]},"p":{"a":0,"k":[0,0]},"r":{"a":0,"k":0}}]},{"ty":"gr","nm":"icon shape group","it":[{"ty":"rc","s":{"a":0,"k":[468,272]},"r":{"a":0,"k":0},"p":{"a":0,"k":[234,136]}},{"ty":"st","o":{"a":0,"k":0},"w":{"a":0,"k":0},"c":{"a":0,"k":[0,0,0,0]},"lc":3,"lj":1,"ml":1},{"ty":"fl","o":{"a":0,"k":0},"c":{"a":0,"k":[0,0,0,0]},"r":1},{"ty":"tr","o":{"a":0,"k":100},"a":{"a":0,"k":[0,0]},"s":{"a":0,"k":[100,100]},"p":{"a":0,"k":[-204,-76]},"r":{"a":0,"k":0}}]}],"op":66},{"ty":4,"nm":"TAKOYAKI","ip":0,"st":0,"ind":1,"hix":2,"ks":{"o":{"a":1,"k":[{"t":0,"s":[0],"e":[0],"i":{"x":[1],"y":[1]},"o":{"x":[0],"y":[0]}},{"t":40,"s":[0],"e":[100],"i":{"x":[0.515],"y":[0.955]},"o":{"x":[0.455],"y":[0.03]}},{"t":66}]},"or":{"a":0,"k":[0,0,0]},"a":{"a":0,"k":[117.5,28.5,0]},"p":{"s":true,"x":{"a":1,"k":[{"t":0,"s":[250],"e":[250],"i":{"x":[0.515],"y":[0.955]},"o":{"x":[0.455],"y":[0.03]}},{"t":6,"s":[250],"e":[250],"i":{"x":[0.515],"y":[0.955]},"o":{"x":[0.455],"y":[0.03]}},{"t":66}]},"y":{"a":1,"k":[{"t":0,"s":[200],"e":[200],"i":{"x":[0.515],"y":[0.955]},"o":{"x":[0.455],"y":[0.03]}},{"t":66}]}},"rx":{"a":0,"k":0},"ry":{"a":0,"k":0},"rz":{"a":0,"k":0},"s":{"a":0,"k":[100,100]}},"shapes":[{"ty":"gr","nm":"TAKOYAKI shape group","it":[{"ty":"sh","ks":{"a":0,"k":{"c":true,"v":[[135.423236,221.375574],[136.52725,221.306573],[137.838267,219.995556],[138.252272,215.786502],[138.597276,185.15011],[138.735278,183.149085],[139.770291,181.769067],[143.772343,181.562064],[146.532378,181.838068],[146.67038,180.389049],[146.946383,170.866927],[144.32435,167.830889],[132.456198,168.106892],[119.898037,168.175893],[117,168.658899],[117.621008,178.595026],[120.174041,181.21706],[124.521096,181.079058],[126.522122,182.873081],[126.660124,189.704168],[126.660124,197.777272],[126.315119,209.645424],[126.246118,218.339535],[128.868152,221.375574],[135.423236,221.375574]],"i":[[0,0],[-0.34500500000001466,0],[-0.0690010000000143,0.9660120000000063],[0.06900099999998588,1.3800179999999784],[-0.2760030000000029,10.212131],[-0.06900099999998588,0.6900079999999775],[-0.7590089999999918,0.06900099999998588],[-1.3110169999999925,0],[-0.9660120000000063,-0.06900099999998588],[-0.06900099999998588,0.41400600000000054],[-0.13800200000000018,3.1740409999999883],[1.4490179999999953,0],[4.0020509999999945,-0.06900099999998588],[4.209053999999995,-0.0690010000000143],[1.1040140000000065,-0.20700199999998858],[-0.27600400000000036,-3.174039999999991],[-1.9320249999999959,-0.0690010000000143],[-1.4490179999999953,0.13800200000000018],[-0.06900100000000009,-1.79402300000001],[-0.06900100000000009,-2.277028999999999],[0.06900000000000261,-2.6910349999999994],[0.06900100000000009,-3.9330509999999776],[0.06900100000000009,-2.8980370000000164],[-2.00102600000001,0],[0,0]],"o":[[0.41400500000000306,0],[0.7590099999999893,-0.06900099999998588],[0.1380010000000027,-1.3800180000000069],[-0.41400500000000306,-10.212130000000002],[0,-0.6900090000000034],[0,-0.7590100000000177],[1.311017000000021,-0.0690010000000143],[0.897010999999992,0.0690010000000143],[0.0690010000000143,-0.5520070000000032],[0.0690010000000143,-3.174039999999991],[0.0690010000000143,-1.5180190000000096],[-3.933051000000006,0.0689999999999884],[-4.140052999999995,0],[-0.8970110000000062,0],[0.20700300000000027,3.58804600000002],[0.13800200000000018,2.0700270000000103],[1.4490179999999953,0],[1.6560209999999955,-0.20700300000001448],[0,2.277028999999999],[0,2.6910349999999994],[-0.06900100000000009,4.0020509999999945],[-0.06900100000000009,2.8980370000000164],[-0.06900100000000009,2.1390269999999987],[0,0],[0,0]]}}},{"ty":"sh","ks":{"a":0,"k":{"c":true,"v":[[145.083359,221.789579],[146.463377,221.444575],[152.94946,220.685565],[153.570468,218.891542],[154.881485,213.785477],[156.192501,212.405459],[162.126577,211.577448],[163.9206,212.957466],[164.817612,218.546538],[166.680636,220.34056],[167.991652,220.34056],[174.132731,219.926555],[175.512749,218.339535],[174.960742,214.199482],[173.028717,203.228342],[171.096692,195.017236],[168.750662,179.492038],[167.232643,171.07393],[167.232643,168.589898],[164.748611,167.416883],[160.194553,167.278882],[153.846471,167.761888],[153.70847,172.039942],[152.19045,177.28401],[151.638443,180.527051],[149.292413,190.256176],[147.981396,196.88026],[145.221361,208.817413],[143.013333,220.064557]],"i":[[-1.5870199999999954,0.5520070000000032],[-0.48300600000001737,0.06900000000001683],[-2.277028999999999,0.2760030000000029],[-0.20700300000001448,0.6210080000000175],[-0.41400600000000054,1.6560210000000097],[-0.7590089999999918,0.13800200000000018],[-2.0010249999999985,0.20700299999998606],[-0.207002000000017,-1.3800180000000069],[-0.27600400000000036,-1.8630239999999958],[-1.3800180000000069,-0.1380010000000027],[-0.48300599999998894,0],[-2.070026000000013,0.13800200000000018],[0.13800099999997428,1.3110169999999925],[0.20700199999998858,1.3800180000000069],[0.6900090000000034,3.6570460000000082],[0.48300600000001737,2.7600360000000137],[0.7590099999999893,5.175065999999987],[0.5520070000000032,2.7600350000000162],[-0.6210079999999891,0.7590099999999893],[1.104013999999978,0.06900099999998588],[1.5180189999999811,0.0689999999999884],[2.2770299999999963,-0.13800200000000018],[0.41400500000000306,-1.311015999999995],[0.48300599999998894,-1.7940229999999815],[0.20700300000001448,-1.1040140000000065],[0.7590099999999893,-3.2430420000000026],[0.48300700000001484,-2.2080279999999846],[0.8280110000000036,-4.0020509999999945],[0.6900090000000034,-3.72604800000002]],"o":[[0.4830069999999864,-0.13800200000000018],[2.1390269999999987,-0.27600400000000036],[0.13800200000000018,-0.5520070000000032],[0.41400500000000306,-1.7250219999999956],[0.20700199999998858,-0.7590099999999893],[2.001025999999996,-0.27600400000000036],[1.518020000000007,-0.1380010000000027],[0.34500499999998624,1.8630239999999958],[0.2760030000000029,1.4490179999999953],[0.41400500000000306,0.06900099999998588],[2.0010260000000244,-0.1380010000000027],[1.2420160000000067,-0.0690010000000143],[-0.13800200000000018,-1.3800180000000069],[-0.6210080000000175,-3.6570469999999773],[-0.5520070000000032,-2.7600359999999853],[-0.897010999999992,-5.175065999999987],[-0.48300600000001737,-2.829036000000002],[-0.20700299999998606,-0.897010999999992],[-1.2420160000000067,-1.0350129999999922],[-1.5180190000000096,0],[-2.0700270000000103,-0.13800200000000018],[0.9660130000000038,1.6560210000000097],[-0.48300600000001737,1.725022999999993],[-0.2760030000000029,1.0350129999999922],[-0.7590099999999893,3.2430420000000026],[-0.48300600000001737,2.2080279999999846],[-0.897010999999992,4.0020509999999945],[-0.8280100000000061,3.72604800000002],[-0.34500499999998624,1.6560209999999813]]}}},{"ty":"sh","ks":{"a":0,"k":{"c":true,"v":[[157.503518,202.469332],[160.608558,187.634142],[163.299592,202.262329]],"i":[[1.9320249999999817,-0.0690010000000143],[-1.2420159999999782,2.208028000000013],[-0.7590089999999918,-4.968063000000001]],"o":[[0.13800200000000018,-4.485058000000009],[1.5180190000000096,4.830061999999998],[-2.0010249999999985,0.0690010000000143]]}}},{"ty":"sh","ks":{"a":0,"k":{"c":true,"v":[[181.515825,220.961568],[188.208911,219.995556],[189.65793,219.581551],[189.65793,219.581551],[189.726931,203.711348],[190.899946,205.574372],[196.282014,215.510499],[200.560069,217.92553],[202.354092,217.649526],[206.90815,217.235521],[207.874163,216.131507],[206.356143,211.301445],[204.217116,207.230393],[200.008062,198.950287],[199.732059,188.531153],[207.184154,171.970942],[207.184154,171.970942],[205.942138,169.210906],[198.352041,168.244894],[196.489017,169.417909],[194.34999,174.661976],[191.520954,182.80408],[190.761944,183.839093],[191.106948,171.211932],[189.519928,168.589898],[188.277912,168.520897],[179.5148,169.348908],[179.169795,169.693912],[179.721803,172.453948],[179.721803,186.875132],[179.445799,204.953364],[179.100795,218.75354]],"i":[[-1.4490179999999953,0.27600400000000036],[-2.277028999999999,0.3450040000000172],[0,0],[0,0],[-0.6210080000000175,2.001025000000027],[-0.27600400000000036,-0.5520080000000007],[-1.79402300000001,-3.312043000000017],[-1.93202500000001,0.2760030000000029],[-0.6210080000000175,0.06900099999998588],[-1.5180190000000096,0.1380010000000027],[0.20700199999998858,0.7590089999999918],[0.6210079999999891,1.5180190000000096],[0.6900090000000034,1.3800170000000094],[1.4490189999999927,2.691034000000002],[-2.484031999999985,5.244067999999999],[0,0],[0,0],[1.5180190000000096,0.27600400000000036],[2.484031999999985,0.3450040000000172],[0.3450040000000172,-0.9660120000000063],[0.6900090000000034,-1.79402300000001],[0.9660120000000063,-2.760034999999988],[0.41400500000000306,-0.5520070000000032],[-0.13800200000000018,4.071052000000009],[1.311017000000021,0.41400600000000054],[0.41400500000000306,-0.0689999999999884],[2.898036999999988,-0.27600400000000036],[0.13800200000000018,-0.06900000000001683],[0,-0.8970119999999895],[0.06900000000001683,-4.830061999999998],[0.20700300000001448,-6.0030769999999904],[0.7590089999999918,-4.554057999999998]],"o":[[2.208028999999982,-0.34500399999998876],[0,0],[0,0],[-0.5520070000000032,-2.484031999999985],[0.5520070000000032,0.7590090000000203],[1.8630229999999983,3.312041999999991],[0.9660130000000038,1.7250219999999956],[0.5520070000000032,-0.13800200000000018],[1.5180199999999786,-0.13800200000000018],[0.6210079999999891,-0.0690010000000143],[-0.41400600000000054,-1.6560220000000072],[-0.6210079999999891,-1.4490189999999927],[-1.4490189999999927,-2.7600359999999853],[-2.760034999999988,-5.106065999999998],[0,0],[0,0],[0.6900090000000034,-1.518020000000007],[-2.553032999999999,-0.34500399999998876],[-0.8970120000000179,-0.06900099999998588],[-0.6900090000000034,1.7940229999999815],[-0.9660130000000038,2.691034000000002],[-0.13800200000000018,0.27600400000000036],[0.13800200000000018,-4.485056999999983],[0.0690010000000143,-1.5870199999999954],[-0.41400500000000306,-0.1380010000000027],[-2.898036999999988,0.27600400000000036],[-0.13800200000000018,0.0690010000000143],[0.20700300000001448,0.9660129999999754],[0.06900000000001683,4.830061999999998],[-0.06900099999998588,6.0030769999999904],[-0.13800200000000018,4.623059000000012],[-0.20700300000001448,1.518020000000007]]}}},{"ty":"sh","ks":{"a":0,"k":{"c":true,"v":[[222.709353,219.857554],[231.265462,217.511524],[232.162474,216.683514],[237.820546,204.332356],[238.92456,191.705194],[237.820546,180.596052],[235.750519,173.074956],[227.19441,167.002878],[216.361271,170.383921],[211.117204,179.009032],[208.771174,191.291189],[209.25418,202.607334],[211.255206,211.439447]],"i":[[-4.278054999999995,0],[-2.829036000000002,1.0350139999999897],[-0.27600400000000036,0.34500399999998876],[-0.6900090000000034,4.692059999999998],[-0.3450040000000172,4.416056999999995],[0.34500399999998876,3.7950480000000084],[1.0350139999999897,2.346030000000013],[4.071052000000009,0.13800200000000018],[3.312043000000017,-2.277028999999999],[1.1040140000000065,-3.2430420000000026],[0.34500499999998624,-4.140052999999995],[-0.41400500000000306,-3.72604800000002],[-1.0350129999999922,-2.898038000000014]],"o":[[3.036038000000019,0],[0.34500399999998876,-0.13800200000000018],[2.967037000000005,-3.5880459999999914],[0.5520070000000032,-4.071052000000009],[-0.3450040000000172,-3.5190450000000055],[-0.27600400000000036,-2.622033999999985],[-1.6560210000000097,-3.8640499999999918],[-4.0020509999999945,-0.0690010000000143],[-2.967037999999974,2.1390280000000246],[-1.3110169999999925,3.9330500000000086],[-0.2760030000000029,3.7950480000000084],[0.34500500000001466,3.0360379999999907],[1.6560210000000097,4.8990619999999865]]}}},{"ty":"sh","ks":{"a":0,"k":{"c":true,"v":[[221.812341,207.368394],[220.501324,204.470357],[220.363323,187.358138],[221.260334,182.528077],[223.813367,180.251048],[226.021395,181.907069],[226.573402,184.046096],[227.677416,194.53423],[226.159397,204.815362],[224.84838,207.368394]],"i":[[0.8970119999999895,1.3110169999999925],[0.34500499999998624,1.0350139999999897],[-0.5520080000000007,5.727074000000016],[-0.34500399999998876,1.5870199999999954],[-1.1730149999999924,0.20700199999998858],[-0.5520070000000032,-1.311017000000021],[-0.06900099999998588,-0.7590100000000177],[0.41400500000000306,-3.6570470000000057],[1.104013999999978,-3.3120429999999885],[0.5520070000000032,-0.7590089999999918]],"o":[[-0.5520070000000032,-0.8280100000000061],[-1.8630240000000242,-5.658072000000004],[0.1380010000000027,-1.6560210000000097],[0.20700299999998606,-1.0350139999999897],[0.9660120000000063,-0.13800200000000018],[0.27600299999997446,0.6900090000000034],[0.6210080000000175,3.4500439999999912],[0.13800200000000018,3.5190450000000055],[-0.34500500000001466,0.8970110000000204],[-0.8970119999999895,1.3110169999999925]]}}},{"ty":"sh","ks":{"a":0,"k":{"c":true,"v":[[259.486823,220.754566],[261.280846,219.305547],[261.55685,211.646449],[262.315859,198.39828],[262.867866,196.949261],[264.592888,194.396229],[272.182986,181.010057],[277.082048,170.521923],[275.081023,169.348908],[270.871969,169.141905],[264.454887,168.865902],[262.798866,170.107918],[262.177858,172.246945],[257.6928,183.839093],[257.002791,185.219111],[256.519785,184.046096],[252.724737,170.452922],[250.723711,168.658899],[247.411669,168.520897],[240.994587,169.003904],[240.097575,169.693912],[238.92456,169.555911],[239.545568,171.556936],[242.788609,181.700066],[248.30868,195.983249],[249.343693,203.642347],[248.722685,208.679411],[248.584684,219.167545],[250.378707,220.685565],[254.242756,220.547563]],"i":[[-1.7940230000000383,-0.0690010000000143],[-0.0690010000000143,1.0350130000000206],[-0.13800199999997176,2.553032999999999],[-0.2760030000000029,4.4160559999999975],[-0.2760030000000029,0.41400500000000306],[-0.5520070000000032,0.897010999999992],[-2.5530330000000276,4.416057000000023],[-1.4490179999999668,3.72604800000002],[0.6900079999999775,0.13800200000000018],[1.3800170000000094,0.06900099999998588],[2.1390269999999987,0.13800200000000018],[0.20700200000004543,-0.8970120000000179],[0.2760030000000029,-0.6900090000000034],[1.5180200000000355,-3.8640489999999943],[0.27600400000000036,-0.5520070000000032],[0.13800199999997176,0.34500399999998876],[1.1730149999999924,4.554057999999998],[1.104013999999978,0.0690010000000143],[1.1040140000000065,-0.0689999999999884],[2.1390269999999987,-0.20700300000001448],[0,-0.6210080000000175],[0.48300599999998894,0],[-0.0690010000000143,-0.2760030000000029],[-1.0350130000000206,-3.4500439999999912],[-2.415030999999999,-4.554057999999998],[0.41400600000000054,-2.6910349999999994],[0.06900099999998588,-1.7250219999999956],[0.06900099999998588,-3.519044999999977],[-1.3800179999999784,0.13800200000000018],[-1.311017000000021,0]],"o":[[1.2420159999999782,0],[0.0690010000000143,-2.5530320000000017],[0.2760030000000029,-4.4160559999999975],[0.0690010000000143,-0.48300599999998894],[0.4830069999999864,-0.8970110000000204],[2.553032999999971,-4.485058000000009],[1.8630229999999983,-3.312041999999991],[-0.690008999999975,-0.41400499999997464],[-1.3800180000000069,-0.20700299999998606],[-2.139027999999996,-0.0690010000000143],[-0.9660129999999754,0],[-0.13800199999997176,0.7590089999999918],[-1.5180200000000355,3.8640499999999918],[-0.13800199999997176,0.41400600000000054],[-0.20700199999998858,-0.5520070000000032],[-1.311017000000021,-4.554057999999998],[-0.34500500000001466,-1.1730149999999924],[-1.1040140000000065,-0.06900099999998588],[-2.139027999999996,0.0690010000000143],[-0.41400600000000054,0],[-0.3450040000000172,-0.1380010000000027],[0.13800200000000018,0.41400500000000306],[1.1040140000000065,3.381044000000003],[1.5180199999999786,4.899063000000012],[1.2420159999999782,2.5530320000000017],[-0.2760030000000029,1.6560210000000097],[-0.06900000000001683,3.4500440000000197],[0,1.3800180000000069],[1.311015999999995,-0.06900099999998588],[1.7250219999999956,0]]}}},{"ty":"sh","ks":{"a":0,"k":{"c":true,"v":[[272.044984,221.789579],[273.425001,221.444575],[279.911084,220.685565],[280.532092,218.891542],[281.843109,213.785477],[283.154126,212.405459],[289.088202,211.577448],[290.882225,212.957466],[291.779236,218.546538],[293.64226,220.34056],[294.953277,220.34056],[301.094356,219.926555],[302.474373,218.339535],[301.922366,214.199482],[299.990341,203.228342],[298.058317,195.017236],[295.712287,179.492038],[294.194267,171.07393],[294.194267,168.589898],[291.710235,167.416883],[287.156177,167.278882],[280.808096,167.761888],[280.670094,172.039942],[279.152075,177.28401],[278.600068,180.527051],[276.254038,190.256176],[274.943021,196.88026],[272.182986,208.817413],[269.974957,220.064557]],"i":[[-1.5870199999999954,0.5520070000000032],[-0.48300599999998894,0.06900000000001683],[-2.2770290000000273,0.2760030000000029],[-0.20700199999998858,0.6210080000000175],[-0.4140050000000315,1.6560210000000097],[-0.7590100000000461,0.13800200000000018],[-2.0010260000000244,0.20700299999998606],[-0.20700299999998606,-1.3800180000000069],[-0.2760030000000029,-1.8630239999999958],[-1.3800180000000069,-0.1380010000000027],[-0.48300599999998894,0],[-2.070026999999982,0.13800200000000018],[0.13800199999997176,1.3110169999999925],[0.20700299999998606,1.3800180000000069],[0.690008999999975,3.6570460000000082],[0.48300599999998894,2.7600360000000137],[0.7590089999999918,5.175065999999987],[0.5520070000000032,2.7600350000000162],[-0.6210080000000175,0.7590099999999893],[1.104015000000004,0.06900099999998588],[1.5180199999999786,0.0689999999999884],[2.2770290000000273,-0.13800200000000018],[0.41400499999997464,-1.311015999999995],[0.48300599999998894,-1.7940229999999815],[0.20700199999998858,-1.1040140000000065],[0.7590089999999918,-3.2430420000000026],[0.48300599999998894,-2.2080279999999846],[0.8280099999999493,-4.0020509999999945],[0.690008999999975,-3.72604800000002]],"o":[[0.48300599999998894,-0.13800200000000018],[2.139027999999996,-0.27600400000000036],[0.13800199999997176,-0.5520070000000032],[0.41400600000002896,-1.7250219999999956],[0.20700299999998606,-0.7590099999999893],[2.0010259999999676,-0.27600400000000036],[1.5180189999999811,-0.1380010000000027],[0.3450040000000172,1.8630239999999958],[0.27600400000000036,1.4490179999999953],[0.41400499999997464,0.06900099999998588],[2.0010259999999676,-0.1380010000000027],[1.2420149999999808,-0.0690010000000143],[-0.1380020000000286,-1.3800180000000069],[-0.6210080000000175,-3.6570469999999773],[-0.5520070000000032,-2.7600359999999853],[-0.8970119999999611,-5.175065999999987],[-0.4830069999999864,-2.829036000000002],[-0.20700200000004543,-0.897010999999992],[-1.242016000000035,-1.0350129999999922],[-1.518019000000038,0],[-2.070026000000041,-0.13800200000000018],[0.9660120000000347,1.6560210000000097],[-0.48300599999998894,1.725022999999993],[-0.27600400000000036,1.0350129999999922],[-0.7590100000000461,3.2430420000000026],[-0.4830069999999864,2.2080279999999846],[-0.8970119999999611,4.0020509999999945],[-0.8280110000000036,3.72604800000002],[-0.3450040000000172,1.6560209999999813]]}}},{"ty":"sh","ks":{"a":0,"k":{"c":true,"v":[[284.465143,202.469332],[287.570182,187.634142],[290.261217,202.262329]],"i":[[1.9320240000000126,-0.0690010000000143],[-1.2420149999999808,2.208028000000013],[-0.7590099999999893,-4.968063000000001]],"o":[[0.13800099999997428,-4.485058000000009],[1.5180200000000355,4.830061999999998],[-2.0010259999999676,0.0690010000000143]]}}},{"ty":"sh","ks":{"a":0,"k":{"c":true,"v":[[308.47745,220.961568],[315.170536,219.995556],[316.619554,219.581551],[316.619554,219.581551],[316.688555,203.711348],[317.86157,205.574372],[323.243639,215.510499],[327.521694,217.92553],[329.315717,217.649526],[333.869775,217.235521],[333.869775,217.235521],[334.835787,216.131507],[333.317768,211.301445],[331.17874,207.230393],[326.969687,198.950287],[326.693683,188.531153],[334.145778,171.970942],[334.145778,171.970942],[332.903763,169.210906],[325.313665,168.244894],[323.450642,169.417909],[321.311614,174.661976],[318.482578,182.80408],[317.723568,183.839093],[318.068573,171.211932],[316.481552,168.589898],[315.239536,168.520897],[306.476424,169.348908],[306.13142,169.693912],[306.683427,172.453948],[306.683427,186.875132],[306.407423,204.953364],[306.062419,218.75354]],"i":[[-1.4490189999999643,0.27600400000000036],[-2.2770300000000248,0.3450040000000172],[0,0],[0,0],[-0.6210080000000175,2.001025000000027],[-0.27600299999994604,-0.5520080000000007],[-1.7940229999999815,-3.312043000000017],[-1.93202500000001,0.2760030000000029],[-0.6210080000000175,0.06900099999998588],[0,0],[0,0],[0.2070030000000429,0.7590089999999918],[0.6210080000000175,1.5180190000000096],[0.690008999999975,1.3800170000000094],[1.4490179999999668,2.691034000000002],[-2.4840320000000133,5.244067999999999],[0,0],[0,0],[1.5180189999999811,0.27600400000000036],[2.4840320000000133,0.3450040000000172],[0.34500399999996034,-0.9660120000000063],[0.690008999999975,-1.79402300000001],[0.9660120000000347,-2.760034999999988],[0.4140059999999721,-0.5520070000000032],[-0.1380020000000286,4.071052000000009],[1.3110169999999925,0.41400600000000054],[0.41400600000002896,-0.0689999999999884],[2.898036999999988,-0.27600400000000036],[0.1380020000000286,-0.06900000000001683],[0,-0.8970119999999895],[0.0690010000000143,-4.830061999999998],[0.20700299999998606,-6.0030769999999904],[0.7590100000000461,-4.554057999999998]],"o":[[2.208028000000013,-0.34500399999998876],[0,0],[0,0],[-0.5520070000000032,-2.484031999999985],[0.5520070000000032,0.7590090000000203],[1.8630240000000526,3.312041999999991],[0.9660120000000347,1.7250219999999956],[0.5520070000000032,-0.13800200000000018],[0,0],[0,0],[0.6210080000000175,-0.0690010000000143],[-0.41400499999997464,-1.6560220000000072],[-0.6210080000000175,-1.4490189999999927],[-1.4490180000000237,-2.7600359999999853],[-2.7600360000000137,-5.106065999999998],[0,0],[0,0],[0.690008999999975,-1.518020000000007],[-2.5530330000000276,-0.34500399999998876],[-0.8970110000000204,-0.06900099999998588],[-0.6900090000000318,1.7940229999999815],[-0.9660120000000347,2.691034000000002],[-0.13800199999997176,0.27600400000000036],[0.13800199999997176,-4.485056999999983],[0.06900099999995746,-1.5870199999999954],[-0.4140050000000315,-0.1380010000000027],[-2.898036999999988,0.27600400000000036],[-0.13800100000003113,0.0690010000000143],[0.20700299999998606,0.9660129999999754],[0.0690010000000143,4.830061999999998],[-0.0690010000000143,6.0030769999999904],[-0.13800099999997428,4.623059000000012],[-0.20700299999998606,1.518020000000007]]}}},{"ty":"sh","ks":{"a":0,"k":{"c":true,"v":[[341.114868,223.307598],[343.253895,222.68659],[348.566963,222.479588],[351.465,220.754566],[349.808979,212.957466],[349.532975,201.710322],[349.049969,184.667104],[349.256972,174.592975],[347.048943,171.763939],[338.561835,171.280933],[338.354832,172.039942],[338.699837,182.873081],[339.182843,201.917325],[339.458846,221.444575],[339.665849,222.755591]],"i":[[-0.41400600000002896,0.5520069999999748],[-0.7590099999999893,0],[-1.7940229999999815,0.20700199999998858],[-0.48300599999998894,1.380016999999981],[0,2.691034000000002],[0.06900099999995746,3.795049000000006],[0.0690010000000143,5.658072000000004],[0,3.3810430000000053],[1.7940229999999815,0.13800200000000018],[2.8290360000000305,0.13800200000000018],[0,-0.20700199999998858],[-0.0690010000000143,-3.58804600000002],[-0.13800199999997176,-6.348081000000008],[-0.0690010000000143,-6.486082999999979],[-0.13800199999997176,-0.3450040000000172]],"o":[[0.6900079999999775,-0.8970110000000204],[1.7940229999999815,-0.0689999999999884],[1.1730150000000208,-0.0690010000000143],[-0.8280109999999468,-2.7600360000000137],[-0.0690010000000143,-3.72604800000002],[-0.20700200000004543,-5.658072000000004],[-0.06900099999995746,-3.3810430000000053],[0.06900099999995746,-2.0010249999999985],[-2.8290360000000305,-0.27600400000000036],[-0.13800199999997176,0.41400500000000306],[0.1380020000000286,3.5880459999999914],[0.20700199999998858,6.348080999999979],[0.1380020000000286,6.486083000000008],[0,0.48300600000001737],[0.27600400000000036,0.7590099999999893]]}}},{"ty":"st","o":{"a":0,"k":0},"w":{"a":0,"k":0},"c":{"a":0,"k":[0,0,0,0]},"lc":3,"lj":1,"ml":1},{"ty":"fl","o":{"a":0,"k":100},"r":1,"c":{"a":0,"k":[1,1,1,1]}},{"ty":"tr","o":{"a":0,"k":100},"a":{"a":0,"k":[0,0]},"s":{"a":0,"k":[100,100]},"p":{"a":0,"k":[-117,-167]},"r":{"a":0,"k":0}}]}],"op":66},{"ty":4,"ip":0,"st":0,"ind":0,"hix":1,"ks":{"o":{"a":0,"k":100},"or":{"a":0,"k":[0,0,0]},"a":{"a":0,"k":[0,0,0]},"p":{"a":0,"k":[0,0,0]},"rx":{"a":0,"k":0},"ry":{"a":0,"k":0},"rz":{"a":0,"k":0},"s":{"a":0,"k":[100,100,100]}},"shapes":[{"ty":"gr","nm":"undefined shape group","it":[{"ty":"rc","s":{"a":0,"k":[500,400]},"r":{"a":0,"k":0},"p":{"a":0,"k":[250,200]}},{"ty":"st","o":{"a":0,"k":0},"w":{"a":0,"k":0},"c":{"a":0,"k":[0,0,0,0]},"lc":3,"lj":1,"ml":1},{"ty":"fl","o":{"a":0,"k":100},"r":1,"c":{"a":0,"k":[0,0,0,1]}},{"ty":"tr","o":{"a":0,"k":100},"a":{"a":0,"k":[0,0]},"s":{"a":0,"k":[100,100]},"p":{"a":0,"k":[0,0]},"r":{"a":0,"k":0}}]}],"op":66}],"op":66,"w":500,"h":400}