{"ip":0,"fr":60,"v":"5.1.20","assets":[],"layers":[{"ty":4,"nm":"icon","ip":0,"st":0,"ind":3,"hix":3,"ks":{"o":{"a":0,"k":100},"or":{"a":0,"k":[0,0,0]},"a":{"a":0,"k":[40,40,0]},"p":{"s":true,"x":{"a":1,"k":[{"t":0,"s":[200],"e":[200],"i":{"x":[1],"y":[1]},"o":{"x":[0],"y":[0]}},{"t":60}]},"y":{"a":1,"k":[{"t":0,"s":[150],"e":[150],"i":{"x":[1],"y":[1]},"o":{"x":[0],"y":[0]}},{"t":6,"s":[150],"e":[100],"i":{"x":[0],"y":[0.995]},"o":{"x":[0.285],"y":[-0.01]}},{"t":66}]}},"rx":{"a":0,"k":0},"ry":{"a":0,"k":0},"rz":{"a":0,"k":0},"s":{"a":0,"k":[100,100,100]}},"shapes":[{"ty":"gr","nm":"icon shape group","it":[{"ty":"sh","ks":{"a":0,"k":{"c":true,"v":[[33.1878125,62.2775],[33.9640625,60.2721875],[33.51125,57.2965625],[30.92375,42.6125],[31.6353125,33.6209375],[34.3521875,31.2275],[40.4328125,29.2221875],[42.30875,28.5753125],[46.19,26.57],[52.4646875,25.8584375],[53.69375,24.9528125],[47.2896875,23.2709375],[32.9290625,26.2465625],[32.735,26.181875],[32.6703125,25.9878125],[33.3171875,19.971875],[32.864375,18.678125],[32.2821875,18.54875],[32.0234375,18.4840625],[28.465625,25.405625],[26.78375,29.0928125],[20.703125,34.5265625],[21.8675,35.6909375],[26.8484375,34.1384375],[26.78375,35.238125],[25.878125,49.210625],[26.2015625,54.7090625],[26.913125,58.655],[29.241875,60.078125],[32.5409375,61.889375]],"i":[[-0.19406250000000114,0],[0,1.0996875000000017],[0.32343750000000426,0.9056250000000006],[0,5.304375],[-0.4528125000000003,3.105000000000004],[-2.2640625000000014,0.7762499999999974],[-1.2937499999999957,0],[-0.7762500000000045,0.3881250000000023],[-1.8759374999999991,0.9056250000000006],[-2.9109374999999957,0],[0,0.7115624999999994],[3.428437500000001,0],[6.0159375,-1.5524999999999984],[0.06468749999999801,0.06468749999999801],[0,0.12937499999999957],[0,1.8759374999999991],[0.32343749999999716,0],[0.19406250000000114,0.06468750000000156],[0.06468749999999801,0],[0.3881250000000023,-2.0053125000000023],[1.0996874999999982,-0.5821874999999999],[0,-1.1643749999999997],[-0.7115624999999994,0],[-0.7115624999999994,0],[0.06468749999999801,-0.6468749999999943],[0,-4.980937500000003],[-0.19406250000000114,-1.3584375000000009],[-0.12937499999999957,-0.25874999999999915],[-0.4528125000000003,-0.7762499999999974],[-1.0996874999999982,-1.0996875000000017]],"o":[[0.5821875000000034,0],[0,-0.9703124999999986],[-1.746562499999996,-4.463437499999998],[0,-2.8462499999999977],[0.19406249999999758,-1.3584374999999937],[1.2937500000000028,-0.4528125000000003],[0.19406250000000114,0],[1.9406249999999972,-0.9056250000000006],[2.1346875000000054,-1.0350000000000001],[0.7115625000000065,0],[0,-1.2937499999999993],[-7.762500000000003,0],[-0.12937500000000313,0],[0,0],[0,-0.9056250000000006],[0,-0.776250000000001],[-0.12937500000000313,0],[-0.06468749999999801,0],[-1.6818750000000016,0],[-0.5821874999999999,3.1696874999999984],[-3.3637499999999996,1.8112499999999976],[0,0.9056250000000006],[1.552500000000002,0],[0.06468750000000156,0],[-0.4528125000000003,2.781562500000007],[0,2.1346874999999983],[0.25874999999999915,1.9406249999999972],[0.3234375000000007,0.6468750000000014],[0.9703124999999986,1.9406249999999972],[0.25874999999999915,0.25874999999999915]]}}},{"ty":"sh","ks":{"a":0,"k":{"c":true,"v":[[54.21125,40.9953125],[56.6046875,40.671875],[57.31625,39.5075],[51.494375,35.3675],[47.4190625,34.720625],[42.1146875,37.5021875],[41.403125,38.5371875],[43.990625,39.76625]],"i":[[-3.428437500000001,0],[-0.25874999999999915,0.25874999999999915],[0,0.3881250000000023],[1.0996875000000017,0.25874999999999915],[1.0349999999999966,0],[2.3934374999999974,-1.9406249999999972],[0,-0.25874999999999915],[-0.4528125000000003,-0.32343749999999716]],"o":[[1.1643749999999997,0],[0.5175000000000054,-0.3881250000000023],[0,-2.0053125000000023],[-1.8112500000000011,-0.32343749999999716],[-2.0700000000000003,0],[-0.5175000000000054,0.4528125000000003],[0,0.7762499999999974],[0.9056250000000006,0.5821875000000034]]}}},{"ty":"sh","ks":{"a":0,"k":{"c":true,"v":[[49.165625,58.8490625],[57.704375,56.3909375],[56.0871875,55.0325],[48.9715625,53.6740625],[44.6375,51.539375],[43.6671875,51.021875],[41.7265625,53.2859375],[42.05,54.1915625],[45.801875,58.3315625]],"i":[[-1.4231249999999989,0],[0,1.4231249999999989],[1.0996875000000017,0.06468749999999801],[1.6171875,0.6468750000000014],[0.9703124999999986,0.9056250000000006],[0.32343750000000426,0],[0,-1.1643749999999997],[-0.19406249999999403,-0.32343750000000426],[-0.8409375000000026,-0.4528125000000003]],"o":[[3.6225000000000023,0],[0,-0.8409375000000026],[-3.557812499999997,-0.25874999999999915],[-1.4231249999999989,-0.5821874999999963],[-0.25875000000000625,-0.3881250000000023],[-0.9056250000000006,0],[0,0.32343749999999716],[0.7115624999999994,1.2290624999999977],[0.7115624999999994,0.32343750000000426]]}}},{"ty":"st","o":{"a":0,"k":0},"w":{"a":0,"k":0},"c":{"a":0,"k":[0,0,0,0]},"lc":3,"lj":1,"ml":1},{"ty":"fl","o":{"a":0,"k":100},"r":1,"c":{"a":0,"k":[1,1,1,1]}},{"ty":"tr","o":{"a":0,"k":100},"a":{"a":0,"k":[0,0]},"s":{"a":0,"k":[100,100]},"p":{"a":0,"k":[0,0]},"r":{"a":0,"k":0}}]},{"ty":"gr","nm":"icon shape group","it":[{"ty":"el","p":{"a":0,"k":[39,39]},"s":{"a":0,"k":[79.921875,79.921875]}},{"ty":"st","o":{"a":0,"k":0},"w":{"a":0,"k":0},"c":{"a":0,"k":[0,0,0,0]},"lc":3,"lj":1,"ml":1},{"ty":"fl","o":{"a":0,"k":100},"r":2,"c":{"a":0,"k":[0.7803921568627451,0,0.1450980392156863,1]}},{"ty":"tr","o":{"a":0,"k":100},"a":{"a":0,"k":[0,0]},"s":{"a":0,"k":[100,100]},"p":{"a":0,"k":[0,0]},"r":{"a":0,"k":0}}]},{"ty":"gr","nm":"icon shape group","it":[{"ty":"rc","s":{"a":0,"k":[468,272]},"r":{"a":0,"k":0},"p":{"a":0,"k":[234,136]}},{"ty":"st","o":{"a":0,"k":0},"w":{"a":0,"k":0},"c":{"a":0,"k":[0,0,0,0]},"lc":3,"lj":1,"ml":1},{"ty":"fl","o":{"a":0,"k":0},"c":{"a":0,"k":[0,0,0,0]},"r":1},{"ty":"tr","o":{"a":0,"k":100},"a":{"a":0,"k":[0,0]},"s":{"a":0,"k":[100,100]},"p":{"a":0,"k":[-194,-40]},"r":{"a":0,"k":0}}]}],"op":66},{"ty":4,"nm":"TAKOYAKI","ip":0,"st":0,"ind":1,"hix":2,"ks":{"o":{"a":1,"k":[{"t":0,"s":[0],"e":[0],"i":{"x":[1],"y":[1]},"o":{"x":[0],"y":[0]}},{"t":40,"s":[0],"e":[100],"i":{"x":[0.515],"y":[0.955]},"o":{"x":[0.455],"y":[0.03]}},{"t":66}]},"or":{"a":0,"k":[0,0,0]},"a":{"a":0,"k":[156.5,38,0]},"p":{"s":true,"x":{"a":1,"k":[{"t":0,"s":[200],"e":[200],"i":{"x":[0.515],"y":[0.955]},"o":{"x":[0.455],"y":[0.03]}},{"t":60}]},"y":{"a":1,"k":[{"t":0,"s":[201],"e":[201],"i":{"x":[1],"y":[1]},"o":{"x":[0],"y":[0]}},{"t":6,"s":[201],"e":[201],"i":{"x":[0.515],"y":[0.955]},"o":{"x":[0.455],"y":[0.03]}},{"t":66}]}},"rx":{"a":0,"k":0},"ry":{"a":0,"k":0},"rz":{"a":0,"k":0},"s":{"a":0,"k":[100,100,100]}},"shapes":[{"ty":"gr","nm":"TAKOYAKI shape group","it":[{"ty":"sh","ks":{"a":0,"k":{"c":true,"v":[[101.864,237.748],[103.336,237.656],[105.084,235.908],[105.636,230.296],[106.096,189.448],[106.28,186.78],[107.66,184.94],[112.996,184.664],[116.676,185.032],[116.86,183.1],[117.228,170.404],[113.732,166.356],[97.908,166.724],[81.164,166.816],[77.3,167.46],[78.128,180.708],[81.532,184.204],[87.328,184.02],[89.996,186.412],[90.18,195.52],[90.18,206.284],[89.72,222.108],[89.628,233.7],[93.124,237.748],[101.864,237.748]],"i":[[0,0],[-0.45999999999999375,0],[-0.09199999999999875,1.288000000000011],[0.09199999999999875,1.8400000000000034],[-0.3680000000000092,13.615999999999985],[-0.09199999999999875,0.9199999999999875],[-1.0120000000000005,0.09200000000001296],[-1.7479999999999905,0],[-1.2879999999999967,-0.09200000000001296],[-0.09199999999999875,0.5519999999999925],[-0.1839999999999975,4.231999999999999],[1.9320000000000022,0],[5.3359999999999985,-0.09199999999998454],[5.611999999999995,-0.09200000000001296],[1.4720000000000084,-0.27600000000001046],[-0.367999999999995,-4.231999999999999],[-2.5759999999999934,-0.09200000000001296],[-1.9320000000000022,0.1839999999999975],[-0.09199999999999875,-2.391999999999996],[-0.09200000000001296,-3.0360000000000014],[0.09199999999999875,-3.587999999999994],[0.09199999999999875,-5.244],[0.09199999999999875,-3.863999999999976],[-2.667999999999992,0],[0,0]],"o":[[0.5519999999999925,0],[1.0120000000000005,-0.09200000000001296],[0.1839999999999975,-1.839999999999975],[-0.5519999999999925,-13.615999999999985],[0,-0.9200000000000159],[0,-1.0120000000000005],[1.7480000000000047,-0.09199999999998454],[1.195999999999998,0.09200000000001296],[0.09199999999999875,-0.7360000000000184],[0.09199999999999875,-4.231999999999999],[0.09199999999999875,-2.024000000000001],[-5.244,0.09200000000001296],[-5.519999999999996,0],[-1.195999999999998,0],[0.27599999999999625,4.783999999999992],[0.1839999999999975,2.759999999999991],[1.9320000000000022,0],[2.2079999999999984,-0.27600000000001046],[0,3.0360000000000014],[0,3.587999999999994],[-0.09200000000001296,5.336000000000013],[-0.09199999999999875,3.8640000000000043],[-0.09199999999999875,2.852000000000004],[0,0],[0,0]]}}},{"ty":"sh","ks":{"a":0,"k":{"c":true,"v":[[114.744,238.3],[116.584,237.84],[125.232,236.828],[126.06,234.436],[127.808,227.628],[129.556,225.788],[137.468,224.684],[139.86,226.524],[141.056,233.976],[143.54,236.368],[145.288,236.368],[153.476,235.816],[155.316,233.7],[154.58,228.18],[152.004,213.552],[149.428,202.604],[146.3,181.904],[144.276,170.68],[144.276,167.368],[140.964,165.804],[134.892,165.62],[126.428,166.264],[126.244,171.968],[124.22,178.96],[123.484,183.284],[120.356,196.256],[118.608,205.088],[114.928,221.004],[111.984,236]],"i":[[-2.1159999999999997,0.73599999999999],[-0.6440000000000055,0.09199999999998454],[-3.0360000000000014,0.367999999999995],[-0.27599999999999625,0.828000000000003],[-0.5520000000000067,2.208000000000027],[-1.0120000000000005,0.1839999999999975],[-2.667999999999978,0.27600000000001046],[-0.27600000000001046,-1.8400000000000034],[-0.3680000000000234,-2.484000000000009],[-1.8400000000000034,-0.1839999999999975],[-0.6440000000000055,0],[-2.759999999999991,0.1839999999999975],[0.1839999999999975,1.7480000000000189],[0.27599999999998204,1.8400000000000034],[0.9200000000000159,4.876000000000005],[0.6440000000000055,3.6799999999999784],[1.0120000000000005,6.900000000000006],[0.73599999999999,3.680000000000007],[-0.828000000000003,1.0120000000000005],[1.4720000000000084,0.09199999999998454],[2.024000000000001,0.09199999999998454],[3.0360000000000014,-0.1839999999999975],[0.5520000000000067,-1.7479999999999905],[0.6440000000000055,-2.391999999999996],[0.27600000000001046,-1.47199999999998],[1.0120000000000005,-4.324000000000012],[0.6439999999999912,-2.9439999999999884],[1.1039999999999992,-5.335999999999984],[0.9200000000000017,-4.967999999999989]],"o":[[0.6440000000000055,-0.1839999999999975],[2.852000000000004,-0.367999999999995],[0.1839999999999975,-0.73599999999999],[0.5519999999999925,-2.3000000000000114],[0.27599999999999625,-1.011999999999972],[2.667999999999978,-0.3680000000000234],[2.024000000000001,-0.1839999999999975],[0.45999999999997954,2.484000000000009],[0.367999999999995,1.931999999999988],[0.5520000000000209,0.09200000000001296],[2.667999999999978,-0.1839999999999975],[1.656000000000006,-0.09200000000001296],[-0.1839999999999975,-1.839999999999975],[-0.828000000000003,-4.876000000000005],[-0.73599999999999,-3.6799999999999784],[-1.195999999999998,-6.900000000000006],[-0.6440000000000055,-3.7719999999999914],[-0.27600000000001046,-1.195999999999998],[-1.656000000000006,-1.3799999999999955],[-2.024000000000001,0],[-2.759999999999991,-0.1839999999999975],[1.2879999999999967,2.2079999999999984],[-0.6440000000000055,2.3000000000000114],[-0.367999999999995,1.3799999999999955],[-1.0120000000000005,4.324000000000012],[-0.6439999999999912,2.9439999999999884],[-1.195999999999998,5.336000000000013],[-1.1039999999999992,4.968000000000018],[-0.45999999999999375,2.2079999999999984]]}}},{"ty":"sh","ks":{"a":0,"k":{"c":true,"v":[[131.304,212.54],[135.444,192.76],[139.032,212.264]],"i":[[2.5759999999999934,-0.09199999999998454],[-1.6559999999999775,2.944000000000017],[-1.0120000000000005,-6.624000000000024]],"o":[[0.1839999999999975,-5.97999999999999],[2.024000000000001,6.439999999999998],[-2.6680000000000064,0.09199999999998454]]}}},{"ty":"sh","ks":{"a":0,"k":{"c":true,"v":[[163.32,237.196],[172.244,235.908],[174.176,235.356],[174.176,235.356],[174.268,214.196],[175.832,216.68],[183.008,229.928],[188.712,233.148],[191.104,232.78],[197.176,232.228],[198.464,230.756],[196.44,224.316],[193.588,218.888],[187.976,207.848],[187.608,193.956],[197.544,171.876],[197.544,171.876],[195.888,168.196],[185.768,166.908],[183.284,168.472],[180.432,175.464],[176.66,186.32],[175.648,187.7],[176.108,170.864],[173.992,167.368],[172.336,167.276],[160.652,168.38],[160.192,168.84],[160.928,172.52],[160.928,191.748],[160.56,215.852],[160.1,234.252]],"i":[[-1.931999999999988,0.367999999999995],[-3.0360000000000014,0.46000000000000796],[0,0],[0,0],[-0.828000000000003,2.6680000000000064],[-0.367999999999995,-0.7360000000000184],[-2.391999999999996,-4.415999999999997],[-2.5759999999999934,0.367999999999995],[-0.828000000000003,0.09200000000001296],[-2.024000000000001,0.1839999999999975],[0.27600000000001046,1.0120000000000005],[0.828000000000003,2.024000000000001],[0.9200000000000159,1.8400000000000034],[1.931999999999988,3.587999999999994],[-3.312000000000012,6.992000000000019],[0,0],[0,0],[2.024000000000001,0.367999999999995],[3.312000000000012,0.46000000000000796],[0.46000000000000796,-1.288000000000011],[0.9200000000000159,-2.391999999999996],[1.288000000000011,-3.680000000000007],[0.5519999999999925,-0.73599999999999],[-0.1839999999999975,5.427999999999997],[1.7480000000000189,0.5519999999999925],[0.5519999999999925,-0.09200000000001296],[3.8640000000000043,-0.367999999999995],[0.1839999999999975,-0.09200000000001296],[0,-1.195999999999998],[0.09200000000001296,-6.439999999999998],[0.27600000000001046,-8.00399999999999],[1.0120000000000005,-6.072000000000003]],"o":[[2.944000000000017,-0.46000000000000796],[0,0],[0,0],[-0.73599999999999,-3.3119999999999834],[0.73599999999999,1.0120000000000005],[2.484000000000009,4.415999999999997],[1.2879999999999825,2.3000000000000114],[0.7360000000000184,-0.1839999999999975],[2.0239999999999725,-0.1839999999999975],[0.828000000000003,-0.09200000000001296],[-0.5519999999999925,-2.2079999999999984],[-0.828000000000003,-1.9320000000000164],[-1.931999999999988,-3.680000000000007],[-3.680000000000007,-6.808000000000021],[0,0],[0,0],[0.9199999999999875,-2.024000000000001],[-3.4039999999999964,-0.46000000000000796],[-1.195999999999998,-0.09199999999998454],[-0.9199999999999875,2.391999999999996],[-1.2879999999999825,3.587999999999994],[-0.1839999999999975,0.367999999999995],[0.1839999999999975,-5.97999999999999],[0.09199999999998454,-2.116000000000014],[-0.5519999999999925,-0.1839999999999975],[-3.8640000000000043,0.367999999999995],[-0.1839999999999975,0.09200000000001296],[0.27599999999998204,1.2879999999999825],[0.09200000000001296,6.439999999999998],[-0.09199999999998454,8.004000000000019],[-0.1839999999999975,6.163999999999987],[-0.27599999999998204,2.024000000000001]]}}},{"ty":"sh","ks":{"a":0,"k":{"c":true,"v":[[218.244,235.724],[229.652,232.596],[230.848,231.492],[238.392,215.024],[239.864,198.188],[238.392,183.376],[235.632,173.348],[224.224,165.252],[209.78,169.76],[202.788,181.26],[199.66,197.636],[200.304,212.724],[202.972,224.5]],"i":[[-5.704000000000008,0],[-3.7719999999999914,1.3799999999999955],[-0.3680000000000234,0.46000000000000796],[-0.9199999999999875,6.256],[-0.46000000000000796,5.888000000000005],[0.46000000000000796,5.060000000000002],[1.3799999999999955,3.127999999999986],[5.427999999999997,0.1839999999999975],[4.415999999999997,-3.0360000000000014],[1.47199999999998,-4.323999999999984],[0.46000000000000796,-5.519999999999982],[-0.5519999999999925,-4.967999999999989],[-1.3799999999999955,-3.8640000000000043]],"o":[[4.048000000000002,0],[0.46000000000000796,-0.1839999999999975],[3.955999999999989,-4.783999999999992],[0.73599999999999,-5.427999999999997],[-0.46000000000000796,-4.691999999999979],[-0.367999999999995,-3.4960000000000093],[-2.2079999999999984,-5.152000000000015],[-5.335999999999984,-0.09200000000001296],[-3.955999999999989,2.852000000000004],[-1.7480000000000189,5.244],[-0.367999999999995,5.060000000000002],[0.46000000000000796,4.048000000000002],[2.2079999999999984,6.532000000000011]]}}},{"ty":"sh","ks":{"a":0,"k":{"c":true,"v":[[217.048,219.072],[215.3,215.208],[215.116,192.392],[216.312,185.952],[219.716,182.916],[222.66,185.124],[223.396,187.976],[224.868,201.96],[222.844,215.668],[221.096,219.072]],"i":[[1.195999999999998,1.7479999999999905],[0.45999999999997954,1.3799999999999955],[-0.7360000000000184,7.635999999999996],[-0.46000000000000796,2.116000000000014],[-1.5640000000000214,0.27600000000001046],[-0.73599999999999,-1.7479999999999905],[-0.09199999999998454,-1.0120000000000005],[0.5519999999999925,-4.876000000000005],[1.4720000000000084,-4.415999999999997],[0.73599999999999,-1.0120000000000005]],"o":[[-0.73599999999999,-1.1040000000000134],[-2.484000000000009,-7.544000000000011],[0.1839999999999975,-2.2079999999999984],[0.27599999999998204,-1.3799999999999955],[1.2879999999999825,-0.1839999999999975],[0.367999999999995,0.9200000000000159],[0.828000000000003,4.599999999999994],[0.1839999999999975,4.691999999999979],[-0.46000000000000796,1.195999999999998],[-1.195999999999998,1.7479999999999905]]}}},{"ty":"sh","ks":{"a":0,"k":{"c":true,"v":[[267.28,236.92],[269.672,234.988],[270.04,224.776],[271.052,207.112],[271.788,205.18],[274.088,201.776],[284.208,183.928],[290.74,169.944],[288.072,168.38],[282.46,168.104],[273.904,167.736],[271.696,169.392],[270.868,172.244],[264.888,187.7],[263.968,189.54],[263.324,187.976],[258.264,169.852],[255.596,167.46],[251.18,167.276],[242.624,167.92],[241.428,168.84],[239.864,168.656],[240.692,171.324],[245.016,184.848],[252.376,203.892],[253.756,214.104],[252.928,220.82],[252.744,234.804],[255.136,236.828],[260.288,236.644]],"i":[[-2.391999999999996,-0.09199999999998454],[-0.09200000000004138,1.3799999999999955],[-0.18400000000002592,3.4039999999999964],[-0.367999999999995,5.888000000000005],[-0.367999999999995,0.5519999999999925],[-0.7360000000000468,1.195999999999998],[-3.404000000000053,5.888000000000005],[-1.9320000000000164,4.968000000000018],[0.9200000000000159,0.1839999999999975],[1.8400000000000318,0.09199999999998454],[2.8519999999999754,0.1839999999999975],[0.2759999999999536,-1.195999999999998],[0.367999999999995,-0.9199999999999875],[2.024000000000001,-5.151999999999987],[0.367999999999995,-0.73599999999999],[0.18399999999996908,0.46000000000000796],[1.5639999999999645,6.072000000000003],[1.47199999999998,0.09199999999998454],[1.47199999999998,-0.09200000000001296],[2.852000000000004,-0.27599999999998204],[0,-0.828000000000003],[0.6440000000000055,0],[-0.09200000000001296,-0.3680000000000234],[-1.3799999999999955,-4.600000000000023],[-3.219999999999999,-6.072000000000003],[0.5519999999999925,-3.5880000000000223],[0.09200000000001296,-2.299999999999983],[0.09200000000001296,-4.692000000000007],[-1.8400000000000034,0.1839999999999975],[-1.7479999999999905,0]],"o":[[1.656000000000006,0],[0.09199999999998454,-3.4039999999999964],[0.367999999999995,-5.888000000000005],[0.09199999999998454,-0.6440000000000055],[0.6440000000000055,-1.195999999999998],[3.4039999999999964,-5.980000000000018],[2.4839999999999804,-4.415999999999997],[-0.9200000000000159,-0.5519999999999925],[-1.839999999999975,-0.27599999999998204],[-2.8519999999999754,-0.09200000000001296],[-1.288000000000011,0],[-0.18400000000002592,1.0120000000000005],[-2.024000000000001,5.151999999999987],[-0.18399999999996908,0.5520000000000209],[-0.27600000000001046,-0.73599999999999],[-1.7479999999999905,-6.072000000000003],[-0.4600000000000364,-1.563999999999993],[-1.4720000000000084,-0.09200000000001296],[-2.852000000000004,0.09199999999998454],[-0.5519999999999925,0],[-0.46000000000000796,-0.1839999999999975],[0.1839999999999975,0.5519999999999925],[1.47199999999998,4.507999999999981],[2.024000000000001,6.531999999999982],[1.656000000000006,3.4039999999999964],[-0.367999999999995,2.2079999999999984],[-0.09199999999998454,4.599999999999994],[0,1.8400000000000034],[1.7480000000000189,-0.09200000000001296],[2.3000000000000114,0]]}}},{"ty":"sh","ks":{"a":0,"k":{"c":true,"v":[[284.024,238.3],[285.864,237.84],[294.512,236.828],[295.34,234.436],[297.088,227.628],[298.836,225.788],[306.748,224.684],[309.14,226.524],[310.336,233.976],[312.82,236.368],[314.568,236.368],[322.756,235.816],[324.596,233.7],[323.86,228.18],[321.284,213.552],[318.708,202.604],[315.58,181.904],[313.556,170.68],[313.556,167.368],[310.244,165.804],[304.172,165.62],[295.708,166.264],[295.524,171.968],[293.5,178.96],[292.764,183.284],[289.636,196.256],[287.888,205.088],[284.208,221.004],[281.264,236]],"i":[[-2.1159999999999854,0.73599999999999],[-0.6439999999999486,0.09199999999998454],[-3.0360000000000014,0.367999999999995],[-0.2759999999999536,0.828000000000003],[-0.5520000000000209,2.208000000000027],[-1.0120000000000005,0.1839999999999975],[-2.6680000000000064,0.27600000000001046],[-0.27600000000001046,-1.8400000000000034],[-0.367999999999995,-2.484000000000009],[-1.839999999999975,-0.1839999999999975],[-0.6440000000000055,0],[-2.759999999999991,0.1839999999999975],[0.18399999999996908,1.7480000000000189],[0.27600000000001046,1.8400000000000034],[0.9200000000000159,4.876000000000005],[0.6439999999999486,3.6799999999999784],[1.0120000000000005,6.900000000000006],[0.73599999999999,3.680000000000007],[-0.8279999999999745,1.0120000000000005],[1.47199999999998,0.09199999999998454],[2.024000000000001,0.09199999999998454],[3.0360000000000014,-0.1839999999999975],[0.5520000000000209,-1.7479999999999905],[0.6440000000000055,-2.391999999999996],[0.27600000000001046,-1.47199999999998],[1.0120000000000005,-4.324000000000012],[0.6440000000000055,-2.9439999999999884],[1.103999999999985,-5.335999999999984],[0.9200000000000159,-4.967999999999989]],"o":[[0.6440000000000055,-0.1839999999999975],[2.8520000000000323,-0.367999999999995],[0.18400000000002592,-0.73599999999999],[0.5520000000000209,-2.3000000000000114],[0.2759999999999536,-1.011999999999972],[2.6680000000000064,-0.3680000000000234],[2.024000000000001,-0.1839999999999975],[0.4600000000000364,2.484000000000009],[0.367999999999995,1.931999999999988],[0.5520000000000209,0.09200000000001296],[2.6680000000000064,-0.1839999999999975],[1.656000000000006,-0.09200000000001296],[-0.18400000000002592,-1.839999999999975],[-0.8280000000000314,-4.876000000000005],[-0.73599999999999,-3.6799999999999784],[-1.1960000000000264,-6.900000000000006],[-0.6440000000000055,-3.7719999999999914],[-0.27600000000001046,-1.195999999999998],[-1.656000000000006,-1.3799999999999955],[-2.024000000000001,0],[-2.7600000000000477,-0.1839999999999975],[1.287999999999954,2.2079999999999984],[-0.6440000000000055,2.3000000000000114],[-0.367999999999995,1.3799999999999955],[-1.0120000000000005,4.324000000000012],[-0.6440000000000055,2.9439999999999884],[-1.1959999999999695,5.336000000000013],[-1.1040000000000418,4.968000000000018],[-0.4600000000000364,2.2079999999999984]]}}},{"ty":"sh","ks":{"a":0,"k":{"c":true,"v":[[300.584,212.54],[304.724,192.76],[308.312,212.264]],"i":[[2.576000000000022,-0.09199999999998454],[-1.656000000000006,2.944000000000017],[-1.0120000000000005,-6.624000000000024]],"o":[[0.18399999999996908,-5.97999999999999],[2.024000000000001,6.439999999999998],[-2.6680000000000064,0.09199999999998454]]}}},{"ty":"sh","ks":{"a":0,"k":{"c":true,"v":[[332.6,237.196],[341.524,235.908],[343.456,235.356],[343.456,235.356],[343.548,214.196],[345.112,216.68],[352.288,229.928],[357.992,233.148],[360.384,232.78],[366.456,232.228],[366.456,232.228],[367.744,230.756],[365.72,224.316],[362.868,218.888],[357.256,207.848],[356.888,193.956],[366.824,171.876],[366.824,171.876],[365.168,168.196],[355.048,166.908],[352.564,168.472],[349.712,175.464],[345.94,186.32],[344.928,187.7],[345.388,170.864],[343.272,167.368],[341.616,167.276],[329.932,168.38],[329.472,168.84],[330.208,172.52],[330.208,191.748],[329.84,215.852],[329.38,234.252]],"i":[[-1.9320000000000164,0.367999999999995],[-3.0360000000000014,0.46000000000000796],[0,0],[0,0],[-0.8279999999999745,2.6680000000000064],[-0.367999999999995,-0.7360000000000184],[-2.391999999999996,-4.415999999999997],[-2.576000000000022,0.367999999999995],[-0.8280000000000314,0.09200000000001296],[0,0],[0,0],[0.2759999999999536,1.0120000000000005],[0.8279999999999745,2.024000000000001],[0.9200000000000159,1.8400000000000034],[1.9320000000000164,3.587999999999994],[-3.311999999999955,6.992000000000019],[0,0],[0,0],[2.024000000000001,0.367999999999995],[3.312000000000012,0.46000000000000796],[0.45999999999997954,-1.288000000000011],[0.9200000000000159,-2.391999999999996],[1.288000000000011,-3.680000000000007],[0.5520000000000209,-0.73599999999999],[-0.18399999999996908,5.427999999999997],[1.7479999999999905,0.5519999999999925],[0.5520000000000209,-0.09200000000001296],[3.863999999999976,-0.367999999999995],[0.18400000000002592,-0.09200000000001296],[0,-1.195999999999998],[0.09199999999998454,-6.439999999999998],[0.27600000000001046,-8.00399999999999],[1.0120000000000005,-6.072000000000003]],"o":[[2.94399999999996,-0.46000000000000796],[0,0],[0,0],[-0.73599999999999,-3.3119999999999834],[0.73599999999999,1.0120000000000005],[2.4839999999999804,4.415999999999997],[1.288000000000011,2.3000000000000114],[0.73599999999999,-0.1839999999999975],[0,0],[0,0],[0.8279999999999745,-0.09200000000001296],[-0.5520000000000209,-2.2079999999999984],[-0.8280000000000314,-1.9320000000000164],[-1.9320000000000164,-3.680000000000007],[-3.67999999999995,-6.808000000000021],[0,0],[0,0],[0.9200000000000159,-2.024000000000001],[-3.4039999999999964,-0.46000000000000796],[-1.1960000000000264,-0.09199999999998454],[-0.9200000000000159,2.391999999999996],[-1.288000000000011,3.587999999999994],[-0.18400000000002592,0.367999999999995],[0.18400000000002592,-5.97999999999999],[0.09200000000004138,-2.116000000000014],[-0.5519999999999641,-0.1839999999999975],[-3.863999999999976,0.367999999999995],[-0.18400000000002592,0.09200000000001296],[0.27600000000001046,1.2879999999999825],[0.09199999999998454,6.439999999999998],[-0.09200000000004138,8.004000000000019],[-0.18399999999996908,6.163999999999987],[-0.27600000000001046,2.024000000000001]]}}},{"ty":"sh","ks":{"a":0,"k":{"c":true,"v":[[376.116,240.324],[378.968,239.496],[386.052,239.22],[389.916,236.92],[387.708,226.524],[387.34,211.528],[386.696,188.804],[386.972,175.372],[384.028,171.6],[372.712,170.956],[372.436,171.968],[372.896,186.412],[373.54,211.804],[373.908,237.84],[374.184,239.588]],"i":[[-0.5519999999999641,0.73599999999999],[-1.0120000000000005,0],[-2.391999999999996,0.27600000000001046],[-0.6440000000000055,1.8400000000000034],[0,3.587999999999994],[0.09200000000004138,5.060000000000002],[0.09199999999998454,7.544000000000011],[0,4.507999999999981],[2.391999999999996,0.1839999999999975],[3.7719999999999914,0.1839999999999975],[0,-0.27599999999998204],[-0.09200000000004138,-4.78400000000002],[-0.18400000000002592,-8.463999999999999],[-0.09200000000004138,-8.647999999999996],[-0.18400000000002592,-0.46000000000000796]],"o":[[0.9200000000000159,-1.1960000000000264],[2.391999999999996,-0.09200000000001296],[1.5639999999999645,-0.09200000000001296],[-1.103999999999985,-3.6799999999999784],[-0.09200000000004138,-4.967999999999989],[-0.2759999999999536,-7.543999999999983],[-0.09200000000004138,-4.50800000000001],[0.09200000000004138,-2.6680000000000064],[-3.772000000000048,-0.367999999999995],[-0.18399999999996908,0.5520000000000209],[0.18400000000002592,4.78400000000002],[0.27600000000001046,8.463999999999999],[0.18399999999996908,8.647999999999996],[0,0.6440000000000055],[0.367999999999995,1.0120000000000005]]}}},{"ty":"st","o":{"a":0,"k":0},"w":{"a":0,"k":0},"c":{"a":0,"k":[0,0,0,0]},"lc":3,"lj":1,"ml":1},{"ty":"fl","o":{"a":0,"k":100},"r":1,"c":{"a":0,"k":[1,1,1,1]}},{"ty":"tr","o":{"a":0,"k":100},"a":{"a":0,"k":[0,0]},"s":{"a":0,"k":[100,100]},"p":{"a":0,"k":[-77,-165]},"r":{"a":0,"k":0}}]}],"op":66},{"ty":4,"ip":0,"st":0,"ind":0,"hix":1,"ks":{"o":{"a":0,"k":100},"or":{"a":0,"k":[0,0,0]},"a":{"a":0,"k":[0,0,0]},"p":{"a":0,"k":[0,0,0]},"rx":{"a":0,"k":0},"ry":{"a":0,"k":0},"rz":{"a":0,"k":0},"s":{"a":0,"k":[100,100,100]}},"shapes":[{"ty":"gr","nm":"undefined shape group","it":[{"ty":"rc","s":{"a":0,"k":[400,300]},"r":{"a":0,"k":0},"p":{"a":0,"k":[200,150]}},{"ty":"st","o":{"a":0,"k":0},"w":{"a":0,"k":0},"c":{"a":0,"k":[0,0,0,0]},"lc":3,"lj":1,"ml":1},{"ty":"fl","o":{"a":0,"k":100},"r":1,"c":{"a":0,"k":[0,0,0,1]}},{"ty":"tr","o":{"a":0,"k":100},"a":{"a":0,"k":[0,0]},"s":{"a":0,"k":[100,100]},"p":{"a":0,"k":[0,0]},"r":{"a":0,"k":0}}]}],"op":66}],"op":66,"w":400,"h":300}